digraph Tree {
node [shape=box, fontname="helvetica"] ;
edge [fontname="helvetica"] ;
0 [label="x[4] <= 81.0\ngini = 0.564\nsamples = 210\nvalue = [123, 56, 31]"] ;
1 [label="x[10] <= 3.5\ngini = 0.408\nsamples = 127\nvalue = [95, 18, 14]"] ;
0 -> 1 [labeldistance=2.5, labelangle=45, headlabel="True"] ;
2 [label="x[2] <= 527948.5\ngini = 0.233\nsamples = 85\nvalue = [74, 7, 4]"] ;
1 -> 2 ;
3 [label="x[18] <= 44.5\ngini = 0.48\nsamples = 5\nvalue = [2, 3, 0]"] ;
2 -> 3 ;
4 [label="gini = 0.0\nsamples = 2\nvalue = [2, 0, 0]"] ;
3 -> 4 ;
5 [label="gini = 0.0\nsamples = 3\nvalue = [0, 3, 0]"] ;
3 -> 5 ;
6 [label="x[19] <= 4.25\ngini = 0.185\nsamples = 80\nvalue = [72, 4, 4]"] ;
2 -> 6 ;
7 [label="gini = 0.0\nsamples = 1\nvalue = [0, 1, 0]"] ;
6 -> 7 ;
8 [label="x[15] <= 32.75\ngini = 0.165\nsamples = 79\nvalue = [72, 3, 4]"] ;
6 -> 8 ;
9 [label="x[15] <= 27.5\ngini = 0.365\nsamples = 32\nvalue = [25, 3, 4]"] ;
8 -> 9 ;
10 [label="x[21] <= 54.6\ngini = 0.291\nsamples = 30\nvalue = [25, 3, 2]"] ;
9 -> 10 ;
11 [label="x[3] <= 37.1\ngini = 0.153\nsamples = 24\nvalue = [22, 0, 2]"] ;
10 -> 11 ;
12 [label="gini = 0.0\nsamples = 1\nvalue = [0, 0, 1]"] ;
11 -> 12 ;
13 [label="x[19] <= 5.7\ngini = 0.083\nsamples = 23\nvalue = [22, 0, 1]"] ;
11 -> 13 ;
14 [label="x[10] <= 1.5\ngini = 0.5\nsamples = 2\nvalue = [1, 0, 1]"] ;
13 -> 14 ;
15 [label="gini = 0.0\nsamples = 1\nvalue = [0, 0, 1]"] ;
14 -> 15 ;
16 [label="gini = 0.0\nsamples = 1\nvalue = [1, 0, 0]"] ;
14 -> 16 ;
17 [label="gini = 0.0\nsamples = 21\nvalue = [21, 0, 0]"] ;
13 -> 17 ;
18 [label="x[16] <= 3.5\ngini = 0.5\nsamples = 6\nvalue = [3, 3, 0]"] ;
10 -> 18 ;
19 [label="gini = 0.0\nsamples = 3\nvalue = [0, 3, 0]"] ;
18 -> 19 ;
20 [label="gini = 0.0\nsamples = 3\nvalue = [3, 0, 0]"] ;
18 -> 20 ;
21 [label="gini = 0.0\nsamples = 2\nvalue = [0, 0, 2]"] ;
9 -> 21 ;
22 [label="gini = 0.0\nsamples = 47\nvalue = [47, 0, 0]"] ;
8 -> 22 ;
23 [label="x[17] <= 132.5\ngini = 0.625\nsamples = 42\nvalue = [21, 11, 10]"] ;
1 -> 23 ;
24 [label="x[2] <= 533887.5\ngini = 0.666\nsamples = 32\nvalue = [11, 11, 10]"] ;
23 -> 24 ;
25 [label="x[17] <= 32.0\ngini = 0.544\nsamples = 21\nvalue = [10, 10, 1]"] ;
24 -> 25 ;
26 [label="x[15] <= 95.55\ngini = 0.5\nsamples = 14\nvalue = [9, 4, 1]"] ;
25 -> 26 ;
27 [label="x[3] <= 38.05\ngini = 0.403\nsamples = 12\nvalue = [9, 2, 1]"] ;
26 -> 27 ;
28 [label="gini = 0.0\nsamples = 7\nvalue = [7, 0, 0]"] ;
27 -> 28 ;
29 [label="x[5] <= 30.0\ngini = 0.64\nsamples = 5\nvalue = [2, 2, 1]"] ;
27 -> 29 ;
30 [label="gini = 0.0\nsamples = 2\nvalue = [0, 2, 0]"] ;
29 -> 30 ;
31 [label="x[4] <= 62.0\ngini = 0.444\nsamples = 3\nvalue = [2, 0, 1]"] ;
29 -> 31 ;
32 [label="gini = 0.0\nsamples = 1\nvalue = [0, 0, 1]"] ;
31 -> 32 ;
33 [label="gini = 0.0\nsamples = 2\nvalue = [2, 0, 0]"] ;
31 -> 33 ;
34 [label="gini = 0.0\nsamples = 2\nvalue = [0, 2, 0]"] ;
26 -> 34 ;
35 [label="x[3] <= 1239.5\ngini = 0.245\nsamples = 7\nvalue = [1, 6, 0]"] ;
25 -> 35 ;
36 [label="gini = 0.0\nsamples = 6\nvalue = [0, 6, 0]"] ;
35 -> 36 ;
37 [label="gini = 0.0\nsamples = 1\nvalue = [1, 0, 0]"] ;
35 -> 37 ;
38 [label="x[15] <= 36.0\ngini = 0.314\nsamples = 11\nvalue = [1, 1, 9]"] ;
24 -> 38 ;
39 [label="gini = 0.0\nsamples = 9\nvalue = [0, 0, 9]"] ;
38 -> 39 ;
40 [label="x[11] <= 3.5\ngini = 0.5\nsamples = 2\nvalue = [1, 1, 0]"] ;
38 -> 40 ;
41 [label="gini = 0.0\nsamples = 1\nvalue = [0, 1, 0]"] ;
40 -> 41 ;
42 [label="gini = 0.0\nsamples = 1\nvalue = [1, 0, 0]"] ;
40 -> 42 ;
43 [label="gini = 0.0\nsamples = 10\nvalue = [10, 0, 0]"] ;
23 -> 43 ;
44 [label="x[14] <= 60.5\ngini = 0.635\nsamples = 83\nvalue = [28.0, 38.0, 17.0]"] ;
0 -> 44 [labeldistance=2.5, labelangle=-45, headlabel="False"] ;
45 [label="x[15] <= 33.35\ngini = 0.597\nsamples = 66\nvalue = [13, 36, 17]"] ;
44 -> 45 ;
46 [label="x[6] <= 22.0\ngini = 0.652\nsamples = 42\nvalue = [10, 15, 17]"] ;
45 -> 46 ;
47 [label="x[21] <= 2.55\ngini = 0.619\nsamples = 38\nvalue = [6, 15, 17]"] ;
46 -> 47 ;
48 [label="x[15] <= 4.0\ngini = 0.397\nsamples = 11\nvalue = [3, 0, 8]"] ;
47 -> 48 ;
49 [label="x[17] <= 5.5\ngini = 0.375\nsamples = 4\nvalue = [3, 0, 1]"] ;
48 -> 49 ;
50 [label="gini = 0.0\nsamples = 1\nvalue = [0, 0, 1]"] ;
49 -> 50 ;
51 [label="gini = 0.0\nsamples = 3\nvalue = [3, 0, 0]"] ;
49 -> 51 ;
52 [label="gini = 0.0\nsamples = 7\nvalue = [0, 0, 7]"] ;
48 -> 52 ;
53 [label="x[15] <= 27.85\ngini = 0.568\nsamples = 27\nvalue = [3, 15, 9]"] ;
47 -> 53 ;
54 [label="x[15] <= 13.6\ngini = 0.51\nsamples = 23\nvalue = [3, 15, 5]"] ;
53 -> 54 ;
55 [label="x[19] <= 7.6\ngini = 0.643\nsamples = 14\nvalue = [3, 6, 5]"] ;
54 -> 55 ;
56 [label="x[3] <= 39.3\ngini = 0.406\nsamples = 8\nvalue = [1, 6, 1]"] ;
55 -> 56 ;
57 [label="gini = 0.0\nsamples = 6\nvalue = [0, 6, 0]"] ;
56 -> 57 ;
58 [label="x[10] <= 4.0\ngini = 0.5\nsamples = 2\nvalue = [1, 0, 1]"] ;
56 -> 58 ;
59 [label="gini = 0.0\nsamples = 1\nvalue = [0, 0, 1]"] ;
58 -> 59 ;
60 [label="gini = 0.0\nsamples = 1\nvalue = [1, 0, 0]"] ;
58 -> 60 ;
61 [label="x[14] <= 6.0\ngini = 0.444\nsamples = 6\nvalue = [2, 0, 4]"] ;
55 -> 61 ;
62 [label="gini = 0.0\nsamples = 4\nvalue = [0, 0, 4]"] ;
61 -> 62 ;
63 [label="gini = 0.0\nsamples = 2\nvalue = [2, 0, 0]"] ;
61 -> 63 ;
64 [label="gini = 0.0\nsamples = 9\nvalue = [0, 9, 0]"] ;
54 -> 64 ;
65 [label="gini = 0.0\nsamples = 4\nvalue = [0, 0, 4]"] ;
53 -> 65 ;
66 [label="gini = 0.0\nsamples = 4\nvalue = [4, 0, 0]"] ;
46 -> 66 ;
67 [label="x[3] <= 1562.85\ngini = 0.219\nsamples = 24\nvalue = [3, 21, 0]"] ;
45 -> 67 ;
68 [label="x[15] <= 105.25\ngini = 0.087\nsamples = 22\nvalue = [1, 21, 0]"] ;
67 -> 68 ;
69 [label="gini = 0.0\nsamples = 21\nvalue = [0, 21, 0]"] ;
68 -> 69 ;
70 [label="gini = 0.0\nsamples = 1\nvalue = [1, 0, 0]"] ;
68 -> 70 ;
71 [label="gini = 0.0\nsamples = 2\nvalue = [2, 0, 0]"] ;
67 -> 71 ;
72 [label="x[19] <= 4.15\ngini = 0.208\nsamples = 17\nvalue = [15, 2, 0]"] ;
44 -> 72 ;
73 [label="gini = 0.0\nsamples = 1\nvalue = [0, 1, 0]"] ;
72 -> 73 ;
74 [label="x[4] <= 91.0\ngini = 0.117\nsamples = 16\nvalue = [15, 1, 0]"] ;
72 -> 74 ;
75 [label="x[14] <= 93.5\ngini = 0.444\nsamples = 3\nvalue = [2, 1, 0]"] ;
74 -> 75 ;
76 [label="gini = 0.0\nsamples = 1\nvalue = [0, 1, 0]"] ;
75 -> 76 ;
77 [label="gini = 0.0\nsamples = 2\nvalue = [2, 0, 0]"] ;
75 -> 77 ;
78 [label="gini = 0.0\nsamples = 13\nvalue = [13, 0, 0]"] ;
74 -> 78 ;
}
